no -0.004384072497487068 0.0013300771825015545 -5.327875842340291E-4 -0.0013755233958363533 -0.003493921598419547 0.004159071482717991 -0.0011311927810311317 -0.0013680735137313604 0.002076210454106331 -0.004845851566642523 0.004235433414578438 1.199087273562327E-4 -0.004890307784080505 0.004239218309521675 -0.004485445097088814 0.0022304218728095293 0.0015769647434353828 -0.003669588128104806 -6.066682981327176E-4 0.0025509116239845753 6.362230633385479E-4 0.0035389293916523457 0.00459250109270215 -0.004188849125057459 2.740488271228969E-4 -0.00230228528380394 -1.123565380112268E-4 0.004385263659060001 7.327433559112251E-4 -6.914028781466186E-4 0.0049682422541081905 -0.0035231716465204954 0.0012309127487242222 -0.003221366787329316 0.0013425230281427503 -0.0029372330754995346 -0.0035477422643452883 -0.0018664472736418247 -0.003491703886538744 0.004528042394667864 -0.0023049733135849237 0.0015624280786141753 -0.003811101894825697 7.087784470058978E-4 0.0034836214035749435 0.004058012738823891 6.066921632736921E-4 0.003468848532065749 -0.004155628848820925 -0.003580294316634536 -0.003685976145789027 0.004290320910513401 8.788197301328182E-4 0.0034190884325653315 -0.0029880853835493326 9.13910917006433E-4 3.1290671904571354E-4 -0.0019610379822552204 -0.003305073594674468 4.5318453339859843E-4 0.0026243904139846563 0.0010681954445317388 -0.0045818155631423 -8.307331008836627E-4 0.004311978351324797 -5.031424225308001E-4 -0.0023802504874765873 -9.711215971037745E-4 -0.002596360631287098 -0.00429654773324728 -0.0020683135371655226 -0.002362203085795045 0.0012974573764950037 0.0021078530699014664 0.0011326338863000274 -0.0021197099704295397 0.004452691413462162 -2.480755210854113E-4 0.0032906862907111645 0.0016504827653989196 0.0026379721239209175 -6.161391502246261E-4 -0.004252710845321417 0.002992666559293866 -0.0026224092580378056 -8.722982602193952E-4 0.00247965264134109 -0.0046403128653764725 0.0031288405880331993 0.004167594015598297 0.0018225370440632105 0.001020414987578988 0.0028546026442199945 -0.0013339431025087833 -8.658249862492085E-5 -0.0033893499057739973 8.371513686142862E-4 0.0041383057832717896 -0.0011530756019055843 -0.0022230048198252916
its 0.0029906625859439373 0.002775036497041583 6.870526704005897E-4 0.001052647246979177 0.0045396191999316216 0.004491595085710287 0.0016941468929871917 -0.001930265105329454 0.004570643417537212 -0.004774866160005331 -0.00473611056804657 -0.0011538983089849353 0.0037153037264943123 0.002379012294113636 -0.001955408835783601 -0.0036506366450339556 -0.0012260114308446646 0.004074090160429478 2.59567575994879E-4 -0.0028571859002113342 -0.0037814020179212093 -0.003649006597697735 0.0038053346797823906 0.003347694640979171 0.002450166270136833 -0.004434362053871155 0.004670179449021816 -0.0032023582607507706 -0.0038020936772227287 0.002845961833372712 -0.0013225546572357416 9.148986428044736E-4 0.0037139749620109797 -0.0038384748622775078 0.001726732705719769 -0.0011599956778809428 -0.004059270489960909 0.003987226635217667 0.001311501837335527 0.0028585712425410748 -0.003818238852545619 4.0246802382171154E-4 0.001438584178686142 2.2355109103955328E-4 -0.004380395635962486 -0.0031554116867482662 0.002488674595952034 0.004267281852662563 0.0042931814678013325 -0.0011628823122009635 0.0015063793398439884 -5.278183962218463E-4 0.002394558861851692 -2.6854287716560066E-4 0.001485699089244008 -0.0038900866638869047 0.0031833541579544544 -0.004807629622519016 0.0021071722730994225 -0.00369755900464952 -0.002482704585418105 -0.0034415172412991524 0.004028990864753723 0.0017813305603340268 0.0018610763363540173 0.0029118747916072607 -0.0024879248812794685 0.0034825478214770555 -0.0037228937726467848 -0.003490117145702243 9.072264656424522E-4 -5.411566817201674E-4 -0.00403126934543252 0.004016787279397249 0.0030467745382338762 0.003659310517832637 0.0012887583579868078 -0.0010888486867770553 0.0032827763352543116 0.0023445719853043556 0.004644972737878561 2.7755327755585313E-4 -0.0028423205949366093 0.002698438474908471 0.0011195128317922354 2.754987799562514E-4 -0.003981668967753649 -0.004061949905008078 0.0024881488643586636 -0.0013907370157539845 0.004227496217936277 -1.2027521734125912E-4 -0.002800574991852045 -0.004024014342576265 0.0049901907332241535 0.003917945548892021 7.556448108516634E-4 -0.0024914152454584837 -9.284453117288649E-4 0.002265605377033353
i 0.0036499116104096174 0.003624778240919113 0.0023545867297798395 -0.003932649735361338 -0.0013106123078614473 0.00476381741464138 -0.0020421906374394894 5.23603055626154E-4 -0.0030113032553344965 5.600759177468717E-4 0.0035873539745807648 0.0049292477779090405 -0.004738959018141031 3.3908046316355467E-4 -9.896872797980905E-4 -0.001977861626073718 -0.004791545681655407 -0.0010592039907351136 -0.004926782101392746 -6.520584574900568E-4 -0.0010855912696570158 0.0030485200695693493 0.00282535282894969 0.0035139305982738733 -0.0016858589369803667 -0.004114940296858549 -3.689404184115119E-5 -0.0037174427416175604 1.6898724425118417E-4 -0.0016372895333915949 -0.004954839125275612 -0.0031531122513115406 -0.0029089448507875204 -0.0016809110529720783 9.144737850874662E-4 -0.0037561291828751564 0.004976293537765741 0.004029029980301857 0.0034029234666377306 0.004649527836591005 -6.497778813354671E-4 -0.0036679257173091173 -3.0286042601801455E-4 -0.0022906004451215267 -0.0032837120816111565 5.370689905248582E-4 -0.0034940519835799932 0.0022888598032295704 0.003721317509189248 -0.0035876815672963858 -0.001844101818278432 -0.002756352536380291 -0.0025558851193636656 0.003153586760163307 -0.002625066554173827 -0.004825854208320379 0.003126376774162054 -0.0012541244504973292 6.825770833529532E-4 -0.0033613017294555902 -0.0021729920990765095 0.002179362578317523 -0.0031188884750008583 -0.004256590269505978 0.0010199637617915869 3.3199600875377655E-4 0.004594736732542515 -0.003276502713561058 -0.004105131141841412 -0.004449185915291309 0.0017041622195392847 0.0027136397548019886 0.0017610403010621667 5.259690224193037E-4 -9.305626153945923E-4 -0.004313257522881031 0.004761987365782261 -0.0025937999598681927 0.0035846326500177383 2.924339205492288E-4 0.0048850905150175095 -0.0036756007466465235 -5.562059814110398E-4 2.040292602032423E-4 -0.004358966369181871 0.0033945899922400713 1.512700255261734E-4 -7.169174496084452E-4 -0.0020905490964651108 -0.0028457927983254194 2.6330226683057845E-4 -0.004489860963076353 -0.004343017004430294 0.003504023654386401 -0.0016557538183405995 -0.00313778524287045 -3.76035925000906E-4 -5.026640719734132E-4 0.0030286558903753757 -0.0021441446151584387
it 0.004410106688737869 0.004429161548614502 0.004742491524666548 -0.0018156353617087007 0.0033835675567388535 4.3452283716760576E-4 0.001196576515212655 -0.0019295603269711137 0.0011713131098076701 -7.945771794766188E-4 0.004732517991214991 0.004706868901848793 -0.0034781505819410086 -0.002919006859883666 -2.915191580541432E-4 -0.0030444799922406673 0.0027933064848184586 -0.004507822450250387 -3.354391665197909E-4 -5.888152518309653E-4 0.0020699703600257635 0.0036893964279443026 0.004288508556783199 -0.002650909824296832 -0.0012449582573026419 -0.004936781246215105 7.834074785932899E-4 -0.0038493855390697718 0.0017627659253776073 -0.0027944929897785187 -0.004406522959470749 0.0016718662809580564 0.0029897023923695087 0.0018422846915200353 0.0036045557353645563 -0.004790930077433586 0.004998528864234686 -0.0027933847159147263 0.0029124636203050613 -0.0017756357556208968 -0.003168397815898061 0.004832613747566938 0.0015052052913233638 0.0038247404154390097 0.003719697706401348 -3.7440622691065073E-4 -0.002329600043594837 -0.0013762484304606915 -1.5657991752959788E-4 0.0012737354263663292 -7.058311603032053E-4 0.002661180915310979 -0.002880136715248227 0.0027893823571503162 -0.0017036439385265112 -0.0019591832533478737 9.81970108114183E-4 0.0025715804658830166 -0.002492316532880068 -3.569897380657494E-4 5.377670750021935E-4 -0.004107063636183739 0.0026926626451313496 0.0012251718435436487 0.0027097242418676615 -0.0034222472459077835 -0.0041495696641504765 1.272744993912056E-4 0.004872890654951334 3.568432293832302E-4 0.0031673975754529238 -0.002091092523187399 6.241841474547982E-4 -0.004366374108940363 7.027224055491388E-4 -5.501783452928066E-4 0.002286783652380109 0.00408804789185524 6.955779972486198E-4 -0.003963417373597622 -0.0013098573544993997 0.002858057152479887 0.004722362384200096 -0.0013447062810882926 -0.004446223843842745 -2.500144764780998E-4 -0.0015356678050011396 -0.004345197696238756 0.003528882749378681 4.8294648877345026E-4 1.406217343173921E-4 -0.0011692256666719913 0.004393891431391239 0.0020994548685848713 -0.001165888854302466 -0.003807801054790616 -0.002244178205728531 -4.6246469719335437E-4 0.003771501826122403 -0.0035127976443618536
to -0.004574283957481384 0.0025222329422831535 0.0022048449609428644 -0.0027166451327502728 -0.00248793070204556 -6.642297375947237E-4 -0.0016912284772843122 -0.0033302835654467344 3.0507499468512833E-4 -0.001476357108913362 0.004006910137832165 -0.0032523723784834146 -0.0033245410304516554 0.0026755775325000286 0.001334891188889742 0.0011958159739151597 -0.0025687168817967176 -1.3354365364648402E-4 3.966480726376176E-4 0.002064791973680258 -0.0020531772170215845 4.0438331780023873E-4 0.0036066588945686817 -0.0023618906270712614 0.0046394020318984985 6.761964759789407E-4 0.001216026139445603 -0.003386963624507189 0.0011123198783025146 8.719092002138495E-4 0.003881117794662714 7.189548923633993E-4 0.004872030578553677 -4.8059667460620403E-4 0.003899709787219763 0.002125578233972192 -3.223333624191582E-5 -0.0029375357553362846 0.0019882277119904757 0.0035216761752963066 -9.93416178971529E-4 -0.004428301937878132 0.0032958299852907658 -6.95585913490504E-4 0.0020688052754849195 -0.001260075718164444 -0.004002241417765617 -0.004675069358199835 0.0032166633754968643 -6.210446590557694E-4 -4.167610313743353E-4 0.0048162988387048244 0.0010340578155592084 -0.004990830551832914 0.004207199905067682 8.165359031409025E-5 0.003684332361444831 1.265969331143424E-4 -0.004028141498565674 0.0022066193632781506 -0.003297517541795969 0.002358631230890751 -0.0024379550013691187 -7.693115621805191E-4 0.0027205764781683683 -0.0012867470504716039 0.0017921032849699259 0.0022840227466076612 -0.004105843603610992 0.003951726481318474 -0.0046697333455085754 -0.0015104179037734866 4.982735263183713E-4 0.0034918002784252167 0.0016504691448062658 0.0010605278657749295 0.004191828891634941 0.004864729009568691 3.5148963797837496E-4 -4.6911617391742766E-4 0.0020928392186760902 -0.003990517929196358 0.004716275259852409 7.779404986649752E-4 -0.002924783155322075 0.004513636697083712 -0.0013463494833558798 0.004964047577232122 0.0010579817462712526 -0.0029319762252271175 -0.003985900431871414 0.004171851556748152 0.0046066478826105595 -0.0011787337716668844 -5.510726477950811E-4 -0.0044423299841582775 -0.003152396297082305 0.0027921004220843315 -9.986490476876497E-4 -0.0020634483080357313
